{"meta": "svm", "class_weight_": [1.0, 1.0], "classes_": [0, 1], "support_": [0, 1, 9, 14, 16, 17, 18, 20, 23, 26, 27, 32, 36, 37, 39, 44, 45, 49, 50, 55, 57, 59, 62, 63, 64, 65, 66, 68, 71, 72, 73, 79, 82, 87, 88, 90, 91, 93, 94, 97, 98, 105, 106, 112, 113, 121, 123, 125, 128, 131, 2, 3, 4, 10, 11, 12, 15, 19, 21, 22, 28, 31, 33, 34, 35, 38, 42, 43, 46, 47, 48, 51, 52, 54, 56, 58, 60, 61, 67, 75, 76, 77, 81, 85, 86, 92, 95, 100, 101, 102, 104, 107, 108, 109, 110, 111, 115, 116, 119, 120, 122, 124], "n_support_": [50, 52], "intercept_": [0.18025474030345046], "probA_": [], "probB_": [], "_intercept_": [-0.18025474030345046], "shape_fit_": [132, 7], "_gamma": 0.01, "params": {"C": 1, "break_ties": false, "cache_size": 200, "class_weight": null, "coef0": 0.0, "decision_function_shape": "ovr", "degree": 3, "gamma": 0.01, "kernel": "rbf", "max_iter": -1, "probability": false, "random_state": 1618, "shrinking": true, "tol": 0.001, "verbose": false}, "support_vectors_": [[-0.15720261589050394, 1.699749731841487, 1.330564471254942, -0.45694699561489893, 1.0892880314283373, -0.19278093076785924, -0.10678806416905044], [0.8143846444124064, -0.29248602244179844, 0.5540312650386221, -0.45694699561489893, 0.3703579306856349, -0.8996443435833414, -0.23493374117191346], [0.23111356086260043, -0.8420682994854634, 1.8734691442872358, 0.04569469956149324, 1.8082181321710398, -1.6065077563988235, -1.5163905112005551], [-0.9338349693967106, -0.8420682994854634, 0.47049540789436783, 0.38078916301242133, 0.5757665308978356, -0.19278093076785924, 0.021357612833812576], [1.9782707501115184, -1.151208330322525, -1.1506103294329462, -0.28939976388943484, -1.1702065709058704, -0.19278093076785924, -2.7978472812291715], [0.6183673130555037, 1.699749731841487, 1.3790977966434592, 2.056261480267062, 2.1676831825423912, -0.19278093076785924, -1.0038078031890907], [1.2016383966053097, -0.8420682994854634, 0.34578911571668786, -1.6297776176931436, -0.19451571989791702, -0.19278093076785924, 0.7902316748509898], [0.42500604309910234, -0.6359749455940891, 0.4923656311107677, 2.893997638894382, 1.5001052318527388, -2.3133711692143057, -1.9008275422091307], [0.036689866345997975, -0.29248602244179844, -0.7430362147772424, -1.6297776176931436, -1.1188544208528202, -0.8996443435833414, 0.5339403208452638], [0.036689866345997975, 1.21886523942828, 1.0566597414593266, 0.8834308581888135, 1.3460487816935882, -0.19278093076785924, 0.4057946438424007], [0.39525815541350234, 1.3562608086891963, 0.13781466650582425, 1.3860725533652056, 0.5757665308978356, -0.19278093076785924, -2.6697016042263084], [0.8122597952920056, -0.29248602244179844, 1.9406977047106186, -0.45694699561489893, 1.6541616820118894, 0.514082482047623, -0.49122509517763946], [-0.5449875803635078, -0.01769488391996601, -0.10940277742056155, -0.28939976388943484, -0.19451571989791702, 1.2209458948631051, -2.028973219211994], [-1.7094048983427184, 0.6349340700693861, -1.0448095343645019, 0.38078916301242133, -0.9134458206406195, -0.19278093076785924, 1.0465230288567158], [-0.7383488503199098, -0.1894393454961113, -0.6490635886343575, -0.12185253216397081, -0.6566850703753686, -2.3133711692143057, 0.2776489668395386], [-1.3210887215896145, 1.5280052702653415, 1.724540877349984, 0.38078916301242133, 1.8082181321710398, -0.19278093076785924, -0.6193707721805016], [0.036689866345997975, -1.185557222637754, 0.81288030772893, -0.12185253216397081, 0.7298229810569862, -0.19278093076785924, -0.10678806416905044], [-1.3216199338697143, -0.08639266855042413, 2.1721518334886816, -1.2946831542422155, 1.5001052318527388, -0.19278093076785924, 0.14950328983666225], [-0.9338349693967106, -0.9107660841159215, -0.2567992494266414, 0.7158836264633495, -0.0404592697387665, -0.19278093076785924, -1.2600991571948166], [-1.3216199338697143, -0.7733705148550053, -0.5149038554985641, -0.792041459065827, -0.7080372204284188, -0.19278093076785924, 0.9183773518538528], [-2.234242631081524, 0.32579403923232453, 1.6722889827893332, 0.38078916301242133, 1.7568659821179897, -0.19278093076785924, -0.36307941817477646], [-0.35109509812700584, -0.9451149764311505, -0.10381452478627197, 0.8834308581888135, 0.1649493304734342, -0.8996443435833414, 0.14950328983666225], [-1.1277274516332125, -0.42988159170271467, 1.0196722793080044, -0.792041459065827, 0.678470831003936, -0.19278093076785924, 0.9183773518538528], [1.394468454281612, 0.46318960849324076, 1.053231183320541, -0.45694699561489893, 0.8325272811630865, 1.2209458948631051, -1.7726818652062684], [0.8127910075721062, 0.600585177754157, -1.3246850940857355, 1.3860725533652056, -0.9647979706936697, -0.19278093076785924, 0.7902316748509898], [-0.15720261589050394, -0.1894393454961113, -0.43820516226657813, -0.28939976388943484, -0.5026286202162181, -0.19278093076785924, 0.021357612833812576], [0.036689866345997975, 1.0127718855369057, -0.49983522911209544, -0.45694699561489893, -0.6053329203223184, -0.19278093076785924, -0.36307941817477646], [1.0072147020887086, 0.600585177754157, -0.20357535924192935, 1.2185253216397416, 0.1649493304734342, -0.19278093076785924, -1.0038078031890907], [-0.7394112748801088, 0.18839846997140833, -0.9541851547358738, -1.2946831542422155, -1.2215587209589205, 0.514082482047623, -2.4134102502205823], [-0.5455187926436069, -0.9794638687463796, 0.7317548806976208, 0.38078916301242133, 0.8325272811630865, -0.19278093076785924, -0.8756621261862276], [1.0072147020887086, -1.32295279189867, 0.8362586698189224, 0.38078916301242133, 0.9352315812691868, -0.19278093076785924, -2.6697016042263084], [0.27732902923130065, 2.31802979351561, 0.8151205318354914, 0.7158836264633495, 1.0379358813752873, 1.2209458948631051, -0.7475164491833646], [0.7915425163681066, -1.4603483611595864, 0.7126031846944791, -0.28939976388943484, 0.5757665308978356, -0.19278093076785924, -1.0038078031890907], [0.7676379637636043, -0.7733705148550053, -0.06937279957798051, -1.2946831542422155, -0.4512764701631679, -0.19278093076785924, -1.5163905112005551], [0.4244748308190018, -0.6359749455940891, -0.12836028992184007, -1.2946831542422155, -0.5026286202162181, -0.19278093076785924, -3.18228431223776], [0.42500604309910234, -1.185557222637754, -1.213654590999216, -0.9595886907912873, -1.375615171118071, -0.19278093076785924, -0.7475164491833646], [1.3949996665617124, 1.3562608086891963, -1.5342131117532996, -0.28939976388943484, -1.5296716212772217, -0.19278093076785924, 1.1746687058595788], [-0.7394112748801088, -0.7733705148550053, -0.41778679963669263, 0.38078916301242133, -0.29722002000401737, 0.514082482047623, 0.7902316748509898], [-2.0966586505356224, -0.42988159170271467, -2.108368299131612, -0.45694699561489893, -2.0945452718607735, 2.6346727204940694, -2.028973219211994], [-0.15720261589050394, -1.1168594380072958, -0.5478059572152504, -0.28939976388943484, -0.6053329203223184, -0.19278093076785924, -0.36307941817477646], [1.7843782678750164, 0.9440741009064476, -0.30375630758320954, 1.0509780899142775, 0.01089288031428368, -1.6065077563988235, -1.0038078031890907], [1.1936702124038099, -0.670323837909318, -0.39637501431416144, 1.5536197850906697, 0.06224503036733386, -0.19278093076785924, 0.021357612833812576], [-1.5149812038261166, 0.15404957765617927, 2.466215903873233, -0.28939976388943484, 2.2190353325954413, 1.2209458948631051, 0.4057946438424007], [1.0066834898086081, -0.22378823781134036, 1.1781817162476815, 1.7211670168161337, 1.8082181321710398, -0.19278093076785924, 0.14950328983666225], [-0.9338349693967106, -0.7046727302245471, -0.05610196841705662, -0.45694699561489893, -0.19451571989791702, -0.19278093076785924, 0.021357612833812576], [0.7538264444810067, -0.42988159170271467, 0.9930143535008749, 0.38078916301242133, 1.0892880314283373, 0.514082482047623, 0.5339403208452638], [0.6188985253356043, 0.08535179302572116, 0.20923593509111435, 0.38078916301242133, 0.3190057806325847, -0.19278093076785924, 0.6620859978481267], [0.9004410337886073, 1.9401919780480903, 0.26348210393284155, -3.305249934947784, -0.7593893704814689, 0.514082482047623, -1.1319534801919537], [0.23058234858249987, -0.670323837909318, 1.1872457299678192, 0.5483363947378854, 1.3460487816935882, -0.8996443435833414, -2.5415559272234454], [0.23058234858249987, -0.8077194071702343, -0.9925576398038515, 0.38078916301242133, -0.8620936705875694, -0.19278093076785924, -0.6193707721805016], [0.04040835230669901, -0.9794638687463796, -1.40710857193384, -0.12185253216397081, -1.375615171118071, -0.19278093076785924, -0.36307941817477646], [0.6183673130555037, -0.12074156086565319, -0.40123154921659704, -0.792041459065827, -0.6053329203223184, -0.8996443435833414, 0.14950328983666225], [0.4255372553792029, -0.670323837909318, -0.7701955855911743, 1.8887142485415978, -0.2458678699509672, 0.514082482047623, 0.2776489668395386], [0.03615865406589881, -1.5633950381052735, 0.4632720996575396, 1.7211670168161337, 1.0379358813752873, -2.3133711692143057, 1.0465230288567158], [0.6188985253356043, -0.12074156086565319, 1.0975181426221754, 0.38078916301242133, 1.1919923315344376, -0.8996443435833414, 1.0465230288567158], [1.20057597204511, 1.150167454797822, 1.62355065067686, -1.1271359225167514, 1.0892880314283373, -2.3133711692143057, 0.4057946438424007], [0.23058234858249987, -1.3916505765291283, 1.6442099417581921, -0.28939976388943484, 1.4487530817996885, -0.19278093076785924, 0.9183773518538528], [-2.0977210750958224, -0.60162605327886, 1.4643019493623668, -1.2946831542422155, 0.8838794312161367, 1.9278093076785874, 1.0465230288567158], [-0.7394112748801088, -0.46423048401794376, -1.0545018049808943, -0.45694699561489893, -1.1188544208528202, -0.19278093076785924, -1.9008275422091307], [1.0066834898086081, 0.39449182386278264, -1.5854696440221066, 0.2132419312869573, -1.4783194712241714, 0.514082482047623, 0.14950328983666225], [-0.7383488503199098, -1.185557222637754, -0.30784304853436223, 0.7158836264633495, -0.09181141979181667, 0.514082482047623, -1.5163905112005551], [0.03615865406589881, -0.9794638687463796, 1.2542738263041278, 0.38078916301242133, 1.3460487816935882, -0.19278093076785924, -0.6193707721805016], [-0.9317101202763112, -0.12074156086565319, 0.7758978953861421, -0.45694699561489893, 0.5757665308978356, 1.9278093076785874, 0.6620859978481267], [0.8127910075721062, -0.9794638687463796, -0.4078910193973205, -2.1324193128695357, -0.9647979706936697, -0.19278093076785924, 0.2776489668395386], [0.6183673130555037, 0.9440741009064476, -0.6490635886343575, -0.12185253216397081, -0.6566850703753686, -1.6065077563988235, 0.2776489668395386], [1.0093395512091081, -0.8077194071702343, 0.5205021038606139, -1.2946831542422155, 0.06224503036733386, 2.6346727204940694, -0.23493374117191346], [0.23058234858249987, -0.5672771609636309, 0.7758978953861421, -0.45694699561489893, 0.5757665308978356, 1.2209458948631051, 0.5339403208452638], [0.42500604309910234, -0.5329282686484018, -0.17025860251587102, -0.624494227340363, -0.34857217005706753, 0.514082482047623, 0.5339403208452638], [0.4244748308190018, 2.0775875473090064, -0.35055459511283993, -0.9595886907912873, -0.6053329203223184, -0.19278093076785924, -0.10678806416905044], [1.20057597204511, 0.46318960849324076, -0.9615563737504094, 0.8834308581888135, -0.7080372204284188, -0.19278093076785924, -0.8756621261862276], [0.4244748308190018, -0.4985793763331728, 0.3557263398660049, 0.7158836264633495, 0.5757665308978356, 0.514082482047623, 0.2776489668395386], [-1.320557509309516, -0.22378823781134036, -0.42939833176128345, -2.4675137763204638, -1.0675022707997701, 0.514082482047623, 0.5339403208452638], [0.6188985253356043, 1.4936563779501124, -0.665149642288406, 0.7158836264633495, -0.4512764701631679, -0.19278093076785924, -0.6193707721805016], [-2.486037251848927, 1.0814696701673638, 0.5749991970156695, 0.38078916301242133, 0.678470831003936, -0.19278093076785924, 0.5339403208452638], [0.6194297376157047, -0.8077194071702343, 0.49427764818521686, 1.0509780899142775, 0.8325272811630865, -1.6065077563988235, 0.9183773518538528], [-0.3505638858469053, 1.699749731841487, -0.2307230897936445, -0.792041459065827, -0.4512764701631679, -0.19278093076785924, -0.49122509517763946], [-1.5160436283863168, -0.8077194071702343, -2.0568614147619675, -0.12185253216397081, -1.9918409717546732, -0.8996443435833414, -0.23493374117191346], [1.0066834898086081, -0.9794638687463796, 0.10382793116248137, -1.6297776176931436, -0.39992432011011775, -0.19278093076785924, -0.23493374117191346], [-0.35109509812700584, 1.21886523942828, 1.0414055695404951, -0.28939976388943484, 0.8838794312161367, -0.19278093076785924, 0.7902316748509898], [0.6151800393749046, -0.15509045318088224, 1.4053144590185072, -1.2946831542422155, 0.8325272811630865, 0.514082482047623, 0.14950328983666225], [1.394468454281612, -0.9794638687463796, 0.9431717483049566, 1.0509780899142775, 1.2946966316405382, -0.19278093076785924, -0.10678806416905044], [1.592610634758914, -0.01769488391996601, 0.44733796503435336, -0.624494227340363, 0.21630148052648437, -0.19278093076785924, -0.36307941817477646], [-2.2916135573323246, -0.6359749455940891, -0.08247501506877665, -1.7973248494186076, -0.6053329203223184, -0.19278093076785924, 0.6620859978481267], [0.42500604309910234, 0.08535179302572116, -0.11692037813676129, 2.39135594371799, 0.6271186809508857, 0.514082482047623, 0.2776489668395386], [-1.9027661682991204, 0.0510029007104921, 0.9977645257336609, -0.45694699561489893, 0.7811751311100363, -0.19278093076785924, 0.7902316748509898], [-0.15720261589050394, -0.9107660841159215, 1.6200370882286823, 0.38078916301242133, 1.7055138320649395, -1.6065077563988235, 0.4057946438424007], [1.7843782678750164, -0.46423048401794376, -0.675564885056965, -0.624494227340363, -0.8107415205345191, 1.9278093076785874, -0.7475164491833646], [0.036689866345997975, 0.11970068534095021, -1.8182649452604371, 0.04569469956149324, -1.7350802214894223, -0.19278093076785924, -0.49122509517763946], [0.036689866345997975, 0.6349340700693861, 1.4454420034701139, 0.04569469956149324, 1.3974009317466385, -2.3133711692143057, -0.49122509517763946], [-1.3216199338697143, -0.4985793763331728, -1.3734350861054538, 1.3860725533652056, -1.0161501207467198, -0.19278093076785924, 0.4057946438424007], [-1.3210887215896145, 0.6692829623846152, 1.3421887261891696, 1.0509780899142775, 1.7055138320649395, -0.19278093076785924, -0.8756621261862276], [-1.1771301936825125, 2.0432386549937775, -1.2015445078226887, 1.0509780899142775, -0.9134458206406195, -0.19278093076785924, -0.10678806416905044], [-0.34897024900660506, 0.2570962546018664, 0.20923593509111435, 0.38078916301242133, 0.3190057806325847, -0.19278093076785924, 0.5339403208452638], [-0.9333037571166107, 0.32579403923232453, 0.3797117458435117, -0.12185253216397081, 0.3190057806325847, -0.8996443435833414, 0.5339403208452638], [1.0066834898086081, -0.8077194071702343, 0.418243513333717, 0.38078916301242133, 0.5244143808447854, -0.19278093076785924, -1.1319534801919537], [1.0072147020887086, -0.08639266855042413, -0.4609744458575237, 0.7158836264633495, -0.2458678699509672, -0.19278093076785924, 0.14950328983666225], [0.4244748308190018, -1.32295279189867, 0.16661225251152403, -0.624494227340363, -0.0404592697387665, -0.19278093076785924, -1.5163905112005551], [-0.15560897905020368, -0.8420682994854634, 0.0543537958144695, 0.04569469956149324, 0.06224503036733386, 1.9278093076785874, -0.23493374117191346], [1.0066834898086081, -0.39553269938748564, 2.058239923149506, -0.12185253216397081, 1.91092243227714, -0.8996443435833414, 0.2776489668395386], [1.2011071843252106, -1.32295279189867, -1.082232150519777, -0.12185253216397081, -1.0675022707997701, -0.19278093076785924, 0.4057946438424007], [0.7841055444467059, 1.699749731841487, -1.2015652180464542, 0.38078916301242133, -1.0675022707997701, -0.19278093076785924, 0.14950328983666225], [-0.35109509812700584, 1.699749731841487, 1.591574337366803, 1.0509780899142775, 1.9622745823301904, -0.19278093076785924, 0.6620859978481267]], "dual_coef_": [[-1.0, -1.0, -1.0, -1.0, -1.0, -1.0, -1.0, -1.0, -1.0, -1.0, -1.0, -1.0, -1.0, -1.0, -1.0, -1.0, -1.0, -1.0, -1.0, -1.0, -1.0, -1.0, -1.0, -1.0, -1.0, -1.0, -1.0, -1.0, -1.0, -1.0, -1.0, -1.0, -1.0, -1.0, -1.0, -1.0, -1.0, -1.0, -1.0, -1.0, -1.0, -1.0, -1.0, -1.0, -1.0, -1.0, -1.0, -1.0, -1.0, -1.0, 1.0, 1.0, 1.0, 1.0, 1.0, 1.0, 1.0, 1.0, 1.0, 0.8103519741152271, 1.0, 1.0, 1.0, 1.0, 1.0, 1.0, 1.0, 0.2921608715151433, 1.0, 1.0, 1.0, 0.37098958751523725, 1.0, 1.0, 1.0, 1.0, 1.0, 1.0, 1.0, 1.0, 1.0, 1.0, 1.0, 1.0, 1.0, 1.0, 1.0, 1.0, 1.0, 1.0, 1.0, 1.0, 1.0, 1.0, 1.0, 1.0, 1.0, 1.0, 1.0, 0.5264975668543923, 1.0, 1.0]], "_dual_coef_": [[1.0, 1.0, 1.0, 1.0, 1.0, 1.0, 1.0, 1.0, 1.0, 1.0, 1.0, 1.0, 1.0, 1.0, 1.0, 1.0, 1.0, 1.0, 1.0, 1.0, 1.0, 1.0, 1.0, 1.0, 1.0, 1.0, 1.0, 1.0, 1.0, 1.0, 1.0, 1.0, 1.0, 1.0, 1.0, 1.0, 1.0, 1.0, 1.0, 1.0, 1.0, 1.0, 1.0, 1.0, 1.0, 1.0, 1.0, 1.0, 1.0, 1.0, -1.0, -1.0, -1.0, -1.0, -1.0, -1.0, -1.0, -1.0, -1.0, -0.8103519741152271, -1.0, -1.0, -1.0, -1.0, -1.0, -1.0, -1.0, -0.2921608715151433, -1.0, -1.0, -1.0, -0.37098958751523725, -1.0, -1.0, -1.0, -1.0, -1.0, -1.0, -1.0, -1.0, -1.0, -1.0, -1.0, -1.0, -1.0, -1.0, -1.0, -1.0, -1.0, -1.0, -1.0, -1.0, -1.0, -1.0, -1.0, -1.0, -1.0, -1.0, -1.0, -0.5264975668543923, -1.0, -1.0]]}