{"learner":{"attributes":{"best_iteration":"13","best_msg":"[13]\ttrain-error:0.22727\tvalidation-error:0.14286","best_score":"0.142857"},"gradient_booster":{"model":{"gbtree_model_param":{"num_trees":"29","size_leaf_vector":"0"},"tree_info":[0,0,0,0,0,0,0,0,0,0,0,0,0,0,0,0,0,0,0,0,0,0,0,0,0,0,0,0,0],"trees":[{"base_weights":[3.3440793E-1,2.6979494E-1,9.38869E-1,3.7292486E-1,-5.797414E-1,2.9704228E-1,9.38869E-1],"default_left":[true,true,false,true,false,false,false],"id":0,"leaf_child_counts":[0,0,0,0,0,0,0],"left_children":[1,3,-1,5,-1,-1,-1],"loss_changes":[4.4833422E-1,9.938527E-1,0E0,3.9969718E-1,0E0,0E0,0E0],"parents":[2147483647,0,0,1,1,3,3],"right_children":[2,4,-1,6,-1,-1,-1],"split_conditions":[1.755E0,1.725E0,9.38869E-1,1.71E0,-5.797414E-1,2.9704228E-1,9.38869E-1],"split_indices":[3,3,0,3,0,0,0],"sum_hessian":[1.202782E1,1.099695E1,1.0308688E0,9.856516E0,1.1404344E0,8.825647E0,1.0308688E0],"tree_param":{"num_deleted":"0","num_feature":"7","num_nodes":"7","size_leaf_vector":"0"}},{"base_weights":[-2.8076193E-1,1.6590892E0,-5.000396E-1,-1.1671981E0,1.3956697E-1,-6.036985E-1,-1.5652232E0,1.6031061E0,-3.0267826E-1],"default_left":[true,false,true,true,true,false,false,false,false],"id":1,"leaf_child_counts":[0,0,0,0,0,0,0,0,0],"left_children":[1,-1,3,5,7,-1,-1,-1,-1],"loss_changes":[4.8789687E0,0E0,4.3717165E0,1.0283942E0,3.4791124E0,0E0,0E0,0E0,0E0],"parents":[2147483647,0,0,2,2,3,3,4,4],"right_children":[2,-1,4,6,8,-1,-1,-1,-1],"split_conditions":[8.825E1,1.6590892E0,1.025E2,9.375E1,1.0625E2,-6.036985E-1,-1.5652232E0,1.6031061E0,-3.0267826E-1],"split_indices":[1,0,1,1,1,0,0,0,0],"sum_hessian":[1.1175013E1,1.0682316E0,1.0106781E1,4.9064713E0,5.20031E0,2.1352248E0,2.7712462E0,1.1458412E0,4.054469E0],"tree_param":{"num_deleted":"0","num_feature":"7","num_nodes":"9","size_leaf_vector":"0"}},{"base_weights":[4.5769596E-1,1.3282071E0,-3.8654274E-1,6.546623E-1,2.7979593E0,-1.46999E0,1.3913293E-1,8.777048E-1,4.2542583E-1,1.1542681E0,-5.173346E-1],"default_left":[true,true,true,true,false,false,true,false,false,false,false],"id":2,"leaf_child_counts":[0,0,0,0,0,0,0,0,0,0,0],"left_children":[1,3,5,7,-1,-1,9,-1,-1,-1,-1],"loss_changes":[6.5199504E0,4.129036E0,2.6094668E0,1.22063994E-1,0E0,0E0,2.160284E0,0E0,0E0,0E0,0E0],"parents":[2147483647,0,0,1,1,2,2,3,3,6,6],"right_children":[2,4,6,8,-1,-1,10,-1,-1,-1,-1],"split_conditions":[1.0075E2,9.575E1,1.06E2,9.125E1,2.7979593E0,-1.46999E0,1.195E2,8.777048E-1,4.2542583E-1,1.1542681E0,-5.173346E-1],"split_indices":[1,1,1,1,0,0,1,0,0,0,0],"sum_hessian":[8.701797E0,4.2560124E0,4.445784E0,3.0176523E0,1.2383602E0,1.3936843E0,3.0521E0,1.3861115E0,1.6315407E0,1.168833E0,1.8832669E0],"tree_param":{"num_deleted":"0","num_feature":"7","num_nodes":"11","size_leaf_vector":"0"}},{"base_weights":[-2.8676456E-1,-8.047369E-1,1.4799899E0,-6.3050836E-1,-1.2699893E0,-1.1331565E0,-2.0641933E-1],"default_left":[true,true,false,true,false,false,false],"id":3,"leaf_child_counts":[0,0,0,0,0,0,0],"left_children":[1,3,-1,5,-1,-1,-1],"loss_changes":[7.2485123E0,4.1351533E-1,0E0,9.633087E-1,0E0,0E0,0E0],"parents":[2147483647,0,0,1,1,3,3],"right_children":[2,4,-1,6,-1,-1,-1],"split_conditions":[1.18E2,1.0575E2,1.4799899E0,9.325E1,-1.2699893E0,-1.1331565E0,-2.0641933E-1],"split_indices":[1,1,0,1,0,0,0],"sum_hessian":[7.6906004E0,5.9891644E0,1.7014359E0,4.5287495E0,1.4604146E0,1.9959123E0,2.5328372E0],"tree_param":{"num_deleted":"0","num_feature":"7","num_nodes":"7","size_leaf_vector":"0"}},{"base_weights":[3.0884293E-1,-2.0985932E0,1.0133799E0,6.781888E-1,1.950875E0,1.5605077E0,4.165723E-1],"default_left":[true,false,true,true,false,false,false],"id":4,"leaf_child_counts":[0,0,0,0,0,0,0],"left_children":[1,-1,3,5,-1,-1,-1],"loss_changes":[1.4823708E1,0E0,1.9830122E0,1.1149735E0,0E0,0E0,0E0],"parents":[2147483647,0,0,2,2,3,3],"right_children":[2,-1,4,6,-1,-1,-1],"split_conditions":[3.3E-2,-2.0985932E0,4.6499997E-2,3.9499998E-2,1.950875E0,1.5605077E0,4.165723E-1],"split_indices":[6,0,6,6,0,0,0],"sum_hessian":[8.514351E0,1.882815E0,6.6315355E0,5.0119185E0,1.6196167E0,1.0326731E0,3.9792457E0],"tree_param":{"num_deleted":"0","num_feature":"7","num_nodes":"7","size_leaf_vector":"0"}},{"base_weights":[-1.1677196E0,-4.0432766E-1,-1.5512836E0],"default_left":[true,false,false],"id":5,"leaf_child_counts":[0,0,0],"left_children":[1,-1,-1],"loss_changes":[1.3832898E0,0E0,0E0],"parents":[2147483647,0,0],"right_children":[2,-1,-1],"split_conditions":[1.645E0,-4.0432766E-1,-1.5512836E0],"split_indices":[3,0,0],"sum_hessian":[4.8384075E0,1.6867498E0,3.1516578E0],"tree_param":{"num_deleted":"0","num_feature":"7","num_nodes":"3","size_leaf_vector":"0"}},{"base_weights":[6.05684E-1,5.3304523E-1,8.2386446E-1],"default_left":[true,false,false],"id":6,"leaf_child_counts":[0,0,0],"left_children":[1,-1,-1],"loss_changes":[8.290124E-2,0E0,0E0],"parents":[2147483647,0,0],"right_children":[2,-1,-1],"split_conditions":[1.45E1,5.3304523E-1,8.2386446E-1],"split_indices":[5,0,0],"sum_hessian":[7.901902E0,6.186535E0,1.7153671E0],"tree_param":{"num_deleted":"0","num_feature":"7","num_nodes":"3","size_leaf_vector":"0"}},{"base_weights":[1.7578252E-1,-1.3137681E0,4.514516E-1,1.1106477E0,-3.4628737E-1,1.2632247E0,7.1196204E-1,-1.0238951E0,1.998148E-1],"default_left":[true,false,true,true,true,false,false,false,false],"id":7,"leaf_child_counts":[0,0,0,0,0,0,0,0,0],"left_children":[1,-1,3,5,7,-1,-1,-1,-1],"loss_changes":[3.2054167E0,0E0,3.4774654E0,1.293292E-1,1.1435924E0,0E0,0E0,0E0,0E0],"parents":[2147483647,0,0,2,2,3,3,4,4],"right_children":[2,-1,4,6,8,-1,-1,-1,-1],"split_conditions":[2.1837154E1,-1.3137681E0,3.0559366E1,2.8318275E1,3.5828876E1,1.2632247E0,7.1196204E-1,-1.0238951E0,1.998148E-1],"split_indices":[2,0,2,2,2,0,0,0,0],"sum_hessian":[7.5617867E0,1.1220932E0,6.4396935E0,3.5045512E0,2.9351423E0,2.3777423E0,1.126809E0,1.2708144E0,1.664328E0],"tree_param":{"num_deleted":"0","num_feature":"7","num_nodes":"9","size_leaf_vector":"0"}},{"base_weights":[2.800411E-2,1.1472762E0,-3.35417E-1,-1.6170217E0,2.8741413E-1,1.2826886E0,-4.4434506E-1],"default_left":[true,false,true,false,true,false,false],"id":8,"leaf_child_counts":[0,0,0,0,0,0,0],"left_children":[1,-1,3,-1,5,-1,-1],"loss_changes":[2.8003345E0,0E0,4.199561E0,0E0,2.6688643E0,0E0,0E0],"parents":[2147483647,0,0,2,2,4,4],"right_children":[2,-1,4,-1,6,-1,-1],"split_conditions":[2.5404804E1,1.1472762E0,2.8944128E1,-1.6170217E0,3.501685E1,1.2826886E0,-4.4434506E-1],"split_indices":[2,0,2,0,2,0,0],"sum_hessian":[6.6897655E0,1.5868534E0,5.1029124E0,1.6166644E0,3.4862478E0,1.4452531E0,2.0409946E0],"tree_param":{"num_deleted":"0","num_feature":"7","num_nodes":"7","size_leaf_vector":"0"}},{"base_weights":[-8.01745E-1,-1.462234E0,-2.0511295E-1,-2.7410084E-1,-2.198312E0,1.3319492E0,-1.1232184E0],"default_left":[true,true,true,false,false,false,false],"id":9,"leaf_child_counts":[0,0,0,0,0,0,0],"left_children":[1,3,5,-1,-1,-1,-1],"loss_changes":[2.461502E0,2.5497313E0,5.0014553E0,0E0,0E0,0E0,0E0],"parents":[2147483647,0,0,1,1,2,2],"right_children":[2,4,6,-1,-1,-1,-1],"split_conditions":[1.015E2,9.375E1,1.115E2,-2.7410084E-1,-2.198312E0,1.3319492E0,-1.1232184E0],"split_indices":[1,1,1,0,0,0,0],"sum_hessian":[6.2224836E0,2.8843467E0,3.3381371E0,1.1558617E0,1.728485E0,1.2314342E0,2.1067028E0],"tree_param":{"num_deleted":"0","num_feature":"7","num_nodes":"7","size_leaf_vector":"0"}},{"base_weights":[5.065992E-1,1.6593891E-1,1.7063617E0,8.7351733E-1,-1.4271261E-1,-1.4868124E0,5.603246E-1],"default_left":[true,true,false,false,true,false,false],"id":10,"leaf_child_counts":[0,0,0,0,0,0,0],"left_children":[1,3,-1,-1,5,-1,-1],"loss_changes":[2.3672116E0,1.0336295E0,0E0,0E0,3.2409477E0,0E0,0E0],"parents":[2147483647,0,0,1,1,4,4],"right_children":[2,4,-1,-1,6,-1,-1],"split_conditions":[1.735E0,1.645E0,1.7063617E0,8.7351733E-1,1.665E0,-1.4868124E0,5.603246E-1],"split_indices":[3,3,0,0,3,0,0],"sum_hessian":[5.7611694E0,4.5757604E0,1.1854092E0,1.3341751E0,3.241585E0,1.0749537E0,2.1666315E0],"tree_param":{"num_deleted":"0","num_feature":"7","num_nodes":"7","size_leaf_vector":"0"}},{"base_weights":[4.6715952E-2,-1.5253022E0,1.0130051E0,1.6625105E0,-6.1029017E-2],"default_left":[true,false,true,false,false],"id":11,"leaf_child_counts":[0,0,0,0,0],"left_children":[1,-1,3,-1,-1],"loss_changes":[6.5998354E0,0E0,1.8851993E0,0E0,0E0],"parents":[2147483647,0,0,2,2],"right_children":[2,-1,4,-1,-1],"split_conditions":[4.1500002E-2,-1.5253022E0,4.5500003E-2,1.6625105E0,-6.1029017E-2],"split_indices":[6,0,6,0,0],"sum_hessian":[4.143068E0,1.5551703E0,2.5878975E0,1.5785205E0,1.009377E0],"tree_param":{"num_deleted":"0","num_feature":"7","num_nodes":"5","size_leaf_vector":"0"}},{"base_weights":[6.068494E-1,-1.394768E-1,7.928124E-1,1.2965679E0,8.6961165E-2],"default_left":[true,false,true,false,false],"id":12,"leaf_child_counts":[0,0,0,0,0],"left_children":[1,-1,3,-1,-1],"loss_changes":[7.984412E-1,0E0,1.6089306E0,0E0,0E0],"parents":[2147483647,0,0,2,2],"right_children":[2,-1,4,-1,-1],"split_conditions":[2.1759346E1,-1.394768E-1,3.1000738E1,1.2965679E0,8.6961165E-2],"split_indices":[2,0,2,0,0],"sum_hessian":[5.573236E0,1.1166755E0,4.45656E0,2.5517359E0,1.9048244E0],"tree_param":{"num_deleted":"0","num_feature":"7","num_nodes":"5","size_leaf_vector":"0"}},{"base_weights":[-8.339341E-2,-7.857574E-1,2.6640144E-1,8.8187E-1,-7.751182E-1,4.8141325E-1,1.3075356E0],"default_left":[true,false,true,true,false,false,false],"id":13,"leaf_child_counts":[0,0,0,0,0,0,0],"left_children":[1,-1,3,5,-1,-1,-1],"loss_changes":[1.5545467E0,0E0,2.7873547E0,3.9950037E-1,0E0,0E0,0E0],"parents":[2147483647,0,0,2,2,3,3],"right_children":[2,-1,4,6,-1,-1,-1],"split_conditions":[3.251096E1,-7.857574E-1,3.801644E1,3.503425E1,-7.751182E-1,4.8141325E-1,1.3075356E0],"split_indices":[0,0,0,0,0,0,0],"sum_hessian":[6.1422386E0,2.0005794E0,4.1416593E0,2.6129243E0,1.5287352E0,1.4561282E0,1.1567961E0],"tree_param":{"num_deleted":"0","num_feature":"7","num_nodes":"7","size_leaf_vector":"0"}},{"base_weights":[-6.445857E-1,-7.0547566E-2,-1.1035223E0,-6.9379187E-1,4.944006E-1,-2.145401E0,-6.908997E-2],"default_left":[true,true,true,false,false,false,false],"id":14,"leaf_child_counts":[0,0,0,0,0,0,0],"left_children":[1,3,5,-1,-1,-1,-1],"loss_changes":[1.348026E0,8.7698966E-1,3.0601256E0,0E0,0E0,0E0,0E0],"parents":[2147483647,0,0,1,1,2,2],"right_children":[2,4,6,-1,-1,-1,-1],"split_conditions":[4.25E-2,3.85E-2,4.5500003E-2,-6.9379187E-1,4.944006E-1,-2.145401E0,-6.908997E-2],"split_indices":[6,6,6,0,0,0,0],"sum_hessian":[5.0464272E0,2.2933168E0,2.7531102E0,1.0795563E0,1.2137605E0,1.3181114E0,1.4349989E0],"tree_param":{"num_deleted":"0","num_feature":"7","num_nodes":"7","size_leaf_vector":"0"}},{"base_weights":[6.1566286E-2,-9.722131E-1,5.961232E-1,1.1878809E0,-2.740243E-2],"default_left":[true,false,true,false,false],"id":15,"leaf_child_counts":[0,0,0,0,0],"left_children":[1,-1,3,-1,-1],"loss_changes":[2.2572057E0,0E0,9.940484E-1,0E0,0E0],"parents":[2147483647,0,0,2,2],"right_children":[2,-1,4,-1,-1],"split_conditions":[9.475E1,-9.722131E-1,1.07E2,1.1878809E0,-2.740243E-2],"split_indices":[1,0,1,0,0],"sum_hessian":[3.879722E0,1.2944715E0,2.5852506E0,1.2799768E0,1.3052738E0],"tree_param":{"num_deleted":"0","num_feature":"7","num_nodes":"5","size_leaf_vector":"0"}},{"base_weights":[5.8993524E-1],"default_left":[false],"id":16,"leaf_child_counts":[0],"left_children":[-1],"loss_changes":[0E0],"parents":[2147483647],"right_children":[-1],"split_conditions":[5.8993524E-1],"split_indices":[0],"sum_hessian":[4.3470836E0],"tree_param":{"num_deleted":"0","num_feature":"7","num_nodes":"1","size_leaf_vector":"0"}},{"base_weights":[2.4110697E-1,-2.0818363E-1,1.7714239E0,-1.0143917E0,1.4805038E-1,8.4098965E-1,-8.2474595E-1],"default_left":[true,true,false,false,true,false,false],"id":17,"leaf_child_counts":[0,0,0,0,0,0,0],"left_children":[1,3,-1,-1,5,-1,-1],"loss_changes":[4.1111608E0,1.3563278E0,0E0,0E0,2.3116148E0,0E0,0E0],"parents":[2147483647,0,0,1,1,4,4],"right_children":[2,4,-1,-1,6,-1,-1],"split_conditions":[3.9030136E1,3.3030136E1,1.7714239E0,-1.0143917E0,3.6527397E1,8.4098965E-1,-8.2474595E-1],"split_indices":[0,0,0,0,0,0,0],"sum_hessian":[5.825737E0,4.5703187E0,1.2554184E0,1.3439701E0,3.2263489E0,1.8921136E0,1.3342353E0],"tree_param":{"num_deleted":"0","num_feature":"7","num_nodes":"7","size_leaf_vector":"0"}},{"base_weights":[-1.6242205E-1,5.029997E-1,-1.1428148E0],"default_left":[true,false,false],"id":18,"leaf_child_counts":[0,0,0],"left_children":[1,-1,-1],"loss_changes":[2.3354862E0,0E0,0E0],"parents":[2147483647,0,0],"right_children":[2,-1,-1],"split_conditions":[8.25E1,5.029997E-1,-1.1428148E0],"split_indices":[4,0,0],"sum_hessian":[3.3918626E0,2.0495E0,1.3423626E0],"tree_param":{"num_deleted":"0","num_feature":"7","num_nodes":"3","size_leaf_vector":"0"}},{"base_weights":[4.8673397E-1,-1.587676E0,1.7403318E0,7.4111336E-1,2.4027548E0],"default_left":[true,false,true,false,false],"id":19,"leaf_child_counts":[0,0,0,0,0],"left_children":[1,-1,3,-1,-1],"loss_changes":[1.37060585E1,0E0,1.9841995E0,0E0,0E0],"parents":[2147483647,0,0,2,2],"right_children":[2,-1,4,-1,-1],"split_conditions":[7.45E1,-1.587676E0,9.2E1,7.4111336E-1,2.4027548E0],"split_indices":[4,0,4,0,0],"sum_hessian":[5.064343E0,1.8976041E0,3.1667387E0,1.3469057E0,1.819833E0],"tree_param":{"num_deleted":"0","num_feature":"7","num_nodes":"5","size_leaf_vector":"0"}},{"base_weights":[-6.6192275E-1,1.2281365E-1,-1.5936711E0,3.9784405E-1,-2.5874424E-1],"default_left":[true,true,false,false,false],"id":20,"leaf_child_counts":[0,0,0,0,0],"left_children":[1,3,-1,-1,-1],"loss_changes":[3.6274276E0,3.0111498E-1,0E0,0E0,0E0],"parents":[2147483647,0,0,1,1],"right_children":[2,4,-1,-1,-1],"split_conditions":[3.553425E1,3.3530136E1,-1.5936711E0,3.9784405E-1,-2.5874424E-1],"split_indices":[0,0,0,0,0],"sum_hessian":[4.8343134E0,2.6713064E0,2.1630068E0,1.5498745E0,1.121432E0],"tree_param":{"num_deleted":"0","num_feature":"7","num_nodes":"5","size_leaf_vector":"0"}},{"base_weights":[6.158881E-2,7.2399116E-1,-2.2390447E0,2.3393776E0,1.8340553E-1,-1.4477055E0,1.1724535E0],"default_left":[true,true,false,false,true,false,false],"id":21,"leaf_child_counts":[0,0,0,0,0,0,0],"left_children":[1,3,-1,-1,5,-1,-1],"loss_changes":[9.010002E0,3.9596915E0,0E0,0E0,5.885109E0,0E0,0E0],"parents":[2147483647,0,0,1,1,4,4],"right_children":[2,4,-1,-1,6,-1,-1],"split_conditions":[3.6164253E1,2.1968025E1,-2.2390447E0,2.3393776E0,2.6883566E1,-1.4477055E0,1.1724535E0],"split_indices":[2,2,0,0,2,0,0],"sum_hessian":[5.705917E0,4.483539E0,1.2223775E0,1.0407637E0,3.4427755E0,1.2820612E0,2.1607141E0],"tree_param":{"num_deleted":"0","num_feature":"7","num_nodes":"7","size_leaf_vector":"0"}},{"base_weights":[7.9143566E-1,5.4797977E-2,1.0693183E0,1.7242163E0,6.169287E-1,7.180745E-1,4.4900867E-1],"default_left":[true,false,true,false,true,true,true],"id":22,"leaf_child_counts":[0,0,0,0,0,0,0],"left_children":[1,-1,3,-1,-1,-1,-1],"loss_changes":[1.0996895E0,0E0,1.0538568E0,0E0,9.741366E-3,0E0,0E0],"parents":[2147483647,0,0,2,2,4,4],"right_children":[2,-1,4,-1,-1,-1,-1],"split_conditions":[9.325E1,5.4797977E-2,1.0625E2,1.7242163E0,6.169287E-1,7.180745E-1,4.4900867E-1],"split_indices":[1,0,1,0,1,2147483647,2147483647],"sum_hessian":[5.3008575E0,1.4847257E0,3.816132E0,1.4442459E0,2.371886E0,1.2757905E0,1.0960956E0],"tree_param":{"num_deleted":"2","num_feature":"7","num_nodes":"7","size_leaf_vector":"0"}},{"base_weights":[-1.4692196E0,-3.738193E-1,-1.962226E0,-2.8155518E0,-8.859617E-1],"default_left":[true,false,true,false,false],"id":23,"leaf_child_counts":[0,0,0,0,0],"left_children":[1,-1,3,-1,-1],"loss_changes":[1.98773E0,0E0,2.1461506E0,0E0,0E0],"parents":[2147483647,0,0,2,2],"right_children":[2,-1,4,-1,-1],"split_conditions":[2.6650345E1,-3.738193E-1,3.3220978E1,-2.8155518E0,-8.859617E-1],"split_indices":[2,0,2,0,0],"sum_hessian":[3.7165387E0,1.2081038E0,2.508435E0,1.3089882E0,1.1994468E0],"tree_param":{"num_deleted":"0","num_feature":"7","num_nodes":"5","size_leaf_vector":"0"}},{"base_weights":[5.53625E-1,-1.2949449E-1,2.0708525E0,4.0627998E-1,-1.2010826E0],"default_left":[true,true,false,false,false],"id":24,"leaf_child_counts":[0,0,0,0,0],"left_children":[1,3,-1,-1,-1],"loss_changes":[4.7779093E0,1.9175766E0,0E0,0E0,0E0],"parents":[2147483647,0,0,1,1],"right_children":[2,4,-1,-1,-1],"split_conditions":[3.5575233E1,3.0795849E1,2.0708525E0,4.0627998E-1,-1.2010826E0],"split_indices":[2,2,0,0,0],"sum_hessian":[4.484016E0,3.1549778E0,1.3290383E0,2.1447353E0,1.0102423E0],"tree_param":{"num_deleted":"0","num_feature":"7","num_nodes":"5","size_leaf_vector":"0"}},{"base_weights":[3.0046073E-1,-4.2373496E-1,8.186961E-1,1.593017E0,-1.9333196E-1],"default_left":[true,false,true,false,false],"id":25,"leaf_child_counts":[0,0,0,0,0],"left_children":[1,-1,3,-1,-1],"loss_changes":[1.6970377E0,0E0,2.08071E0,0E0,0E0],"parents":[2147483647,0,0,2,2],"right_children":[2,-1,4,-1,-1],"split_conditions":[1.6800001E0,-4.2373496E-1,1.725E0,1.593017E0,-1.9333196E-1],"split_indices":[3,0,3,0,0],"sum_hessian":[4.329336E0,1.8134328E0,2.5159035E0,1.3928219E0,1.1230814E0],"tree_param":{"num_deleted":"0","num_feature":"7","num_nodes":"5","size_leaf_vector":"0"}},{"base_weights":[2.8130338E-1,1.9111168E0,-2.0837769E-1,-2.5294427E-2,-5.561156E-1],"default_left":[true,false,true,false,false],"id":26,"leaf_child_counts":[0,0,0,0,0],"left_children":[1,-1,3,-1,-1],"loss_changes":[4.34401E0,0E0,2.6835957E-1,0E0,0E0],"parents":[2147483647,0,0,2,2],"right_children":[2,-1,4,-1,-1],"split_conditions":[1.35E1,1.9111168E0,1.45E1,-2.5294427E-2,-5.561156E-1],"split_indices":[5,0,5,0,0],"sum_hessian":[5.293117E0,1.1558396E0,4.1372776E0,2.7805815E0,1.3566961E0],"tree_param":{"num_deleted":"0","num_feature":"7","num_nodes":"5","size_leaf_vector":"0"}},{"base_weights":[-1.8327652E-2,3.0473283E-1,-6.422536E-1,-5.4139394E-1,9.164895E-1],"default_left":[true,true,false,false,false],"id":27,"leaf_child_counts":[0,0,0,0,0],"left_children":[1,3,-1,-1,-1],"loss_changes":[8.1618303E-1,1.4325477E0,0E0,0E0,0E0],"parents":[2147483647,0,0,1,1],"right_children":[2,4,-1,-1,-1],"split_conditions":[3.501685E1,2.700599E1,-6.422536E-1,-5.4139394E-1,9.164895E-1],"split_indices":[2,2,0,0,0],"sum_hessian":[3.8521163E0,2.571689E0,1.2804273E0,1.0839578E0,1.4877311E0],"tree_param":{"num_deleted":"0","num_feature":"7","num_nodes":"5","size_leaf_vector":"0"}},{"base_weights":[-7.268671E-1,6.001548E-2,-1.2056154E0,2.703227E-1,-1.2917718E-1,-2.9411669E0,-1.4022599E-1,2.5974807E-1,-5.5107397E-1],"default_left":[true,true,true,false,false,false,true,false,false],"id":28,"leaf_child_counts":[0,0,0,0,0,0,0,0,0],"left_children":[1,3,5,-1,-1,-1,7,-1,-1],"loss_changes":[2.327443E0,9.99797E-2,7.047933E0,0E0,0E0,0E0,4.2195755E-1,0E0,0E0],"parents":[2147483647,0,0,1,1,2,2,6,6],"right_children":[2,4,6,-1,-1,-1,8,-1,-1],"split_conditions":[1.0075E2,9.325E1,1.105E2,2.703227E-1,-1.2917718E-1,-2.9411669E0,1.245E2,2.5974807E-1,-5.5107397E-1],"split_indices":[1,1,1,0,0,0,1,0,0],"sum_hessian":[6.0589905E0,2.3250105E0,3.73398E0,1.080756E0,1.2442545E0,1.3533185E0,2.3806615E0,1.2249297E0,1.1557318E0],"tree_param":{"num_deleted":"0","num_feature":"7","num_nodes":"9","size_leaf_vector":"0"}}]},"name":"gbtree"},"learner_model_param":{"base_score":"5E-1","num_class":"0","num_feature":"7"},"objective":{"name":"binary:logistic","reg_loss_param":{"scale_pos_weight":"0.780868828"}}},"version":[1,2,0]}